FANN_FLO_2.1
num_layers=4
learning_rate=0.700000
connection_rate=1.000000
network_type=0
learning_momentum=0.000000
training_algorithm=2
train_error_function=1
train_stop_function=1
cascade_output_change_fraction=0.010000
quickprop_decay=-0.000100
quickprop_mu=1.750000
rprop_increase_factor=1.200000
rprop_decrease_factor=0.500000
rprop_delta_min=0.000000
rprop_delta_max=50.000000
rprop_delta_zero=0.100000
cascade_output_stagnation_epochs=12
cascade_candidate_change_fraction=0.010000
cascade_candidate_stagnation_epochs=12
cascade_max_out_epochs=150
cascade_min_out_epochs=50
cascade_max_cand_epochs=150
cascade_min_cand_epochs=50
cascade_num_candidate_groups=2
bit_fail_limit=9.99999977648258209229e-03
cascade_candidate_limit=1.00000000000000000000e+03
cascade_weight_multiplier=4.00000005960464477539e-01
cascade_activation_functions_count=10
cascade_activation_functions=3 5 7 8 10 11 14 15 16 17 
cascade_activation_steepnesses_count=4
cascade_activation_steepnesses=2.50000000000000000000e-01 5.00000000000000000000e-01 7.50000000000000000000e-01 1.00000000000000000000e+00 
layer_sizes=3 5 5 2 
scale_included=0
neurons (num_inputs, activation_function, activation_steepness)=(0, 0, 0.00000000000000000000e+00) (0, 0, 0.00000000000000000000e+00) (0, 0, 0.00000000000000000000e+00) (3, 5, 1.00000000000000000000e+00) (3, 5, 1.00000000000000000000e+00) (3, 5, 1.00000000000000000000e+00) (3, 5, 1.00000000000000000000e+00) (0, 5, 1.00000000000000000000e+00) (5, 5, 1.00000000000000000000e+00) (5, 5, 1.00000000000000000000e+00) (5, 5, 1.00000000000000000000e+00) (5, 5, 1.00000000000000000000e+00) (0, 5, 1.00000000000000000000e+00) (5, 5, 1.00000000000000000000e+00) (0, 5, 1.00000000000000000000e+00) 
connections (connected_to_neuron, weight)=(0, 1.94561362266540527344e+00) (1, 1.98108363151550292969e+00) (2, 2.54373002052307128906e+00) (0, 3.64588713645935058594e+00) (1, 3.72508192062377929688e+00) (2, -6.15128651261329650879e-02) (0, 5.23626148700714111328e-01) (1, 5.93362927436828613281e-01) (2, -1.05961489677429199219e+00) (0, 1.86605930328369140625e+00) (1, 1.79680454730987548828e+00) (2, -4.81400966644287109375e-01) (3, 2.67199397087097167969e-01) (4, 8.71314287185668945312e-01) (5, 2.35775208473205566406e+00) (6, 2.34865593910217285156e+00) (7, -2.38883352279663085938e+00) (3, 1.32579863071441650391e+00) (4, 3.31043004989624023438e-01) (5, 1.91748404502868652344e+00) (6, 1.36493265628814697266e+00) (7, 5.56971766054630279541e-02) (3, 1.37404203414916992188e+00) (4, 9.40203368663787841797e-01) (5, 1.47521698474884033203e+00) (6, 2.13781523704528808594e+00) (7, -5.12867629528045654297e-01) (3, 1.82006323337554931641e+00) (4, 1.00124943256378173828e+00) (5, 3.77452373504638671875e-01) (6, 1.82141399383544921875e+00) (7, 2.44801664352416992188e+00) (8, 1.54965686798095703125e+00) (9, 5.89379549026489257812e-01) (10, -2.00878947973251342773e-01) (11, 2.48683476448059082031e+00) (12, -7.21530854701995849609e-01) 
