FANN_FLO_2.1
num_layers=4
learning_rate=0.700000
connection_rate=1.000000
network_type=0
learning_momentum=0.000000
training_algorithm=2
train_error_function=1
train_stop_function=1
cascade_output_change_fraction=0.010000
quickprop_decay=-0.000100
quickprop_mu=1.750000
rprop_increase_factor=1.200000
rprop_decrease_factor=0.500000
rprop_delta_min=0.000000
rprop_delta_max=50.000000
rprop_delta_zero=0.100000
cascade_output_stagnation_epochs=12
cascade_candidate_change_fraction=0.010000
cascade_candidate_stagnation_epochs=12
cascade_max_out_epochs=150
cascade_min_out_epochs=50
cascade_max_cand_epochs=150
cascade_min_cand_epochs=50
cascade_num_candidate_groups=2
bit_fail_limit=9.99999977648258209229e-03
cascade_candidate_limit=1.00000000000000000000e+03
cascade_weight_multiplier=4.00000005960464477539e-01
cascade_activation_functions_count=10
cascade_activation_functions=3 5 7 8 10 11 14 15 16 17 
cascade_activation_steepnesses_count=4
cascade_activation_steepnesses=2.50000000000000000000e-01 5.00000000000000000000e-01 7.50000000000000000000e-01 1.00000000000000000000e+00 
layer_sizes=3 5 5 2 
scale_included=0
neurons (num_inputs, activation_function, activation_steepness)=(0, 0, 0.00000000000000000000e+00) (0, 0, 0.00000000000000000000e+00) (0, 0, 0.00000000000000000000e+00) (3, 5, 1.00000000000000000000e+00) (3, 5, 1.00000000000000000000e+00) (3, 5, 1.00000000000000000000e+00) (3, 5, 1.00000000000000000000e+00) (0, 5, 1.00000000000000000000e+00) (5, 5, 1.00000000000000000000e+00) (5, 5, 1.00000000000000000000e+00) (5, 5, 1.00000000000000000000e+00) (5, 5, 1.00000000000000000000e+00) (0, 5, 1.00000000000000000000e+00) (5, 5, 1.00000000000000000000e+00) (0, 5, 1.00000000000000000000e+00) 
connections (connected_to_neuron, weight)=(0, 1.61105823516845703125e+00) (1, 1.60703122615814208984e+00) (2, 1.22252690792083740234e+00) (0, 1.15436017513275146484e+00) (1, 1.15590858459472656250e+00) (2, -1.16228151321411132812e+00) (0, 5.04489839076995849609e-01) (1, 5.03932833671569824219e-01) (2, 8.13747704029083251953e-01) (0, 1.50000000000000000000e+03) (1, 1.50000000000000000000e+03) (2, 1.50000000000000000000e+03) (3, 3.08960266113281250000e+01) (4, 1.41526532173156738281e+00) (5, 6.81337509155273437500e+01) (6, 3.67275762557983398438e+00) (7, 1.96131839752197265625e+01) (3, 5.03281235694885253906e-01) (4, 1.07036483287811279297e+00) (5, 1.36868703365325927734e+00) (6, -5.73490917682647705078e-01) (7, -5.91685056686401367188e-01) (3, 3.95696380615234375000e+02) (4, 3.65280437469482421875e+00) (5, 1.61989990234375000000e+02) (6, 1.11293201446533203125e+01) (7, 1.08099250793457031250e+01) (3, 7.82239198684692382812e-01) (4, 1.33650016784667968750e+00) (5, 8.42405378818511962891e-01) (6, 6.52855396270751953125e-01) (7, 8.04288923740386962891e-01) (8, 8.12518715858459472656e-01) (9, 1.11846125125885009766e+00) (10, 1.87493905425071716309e-01) (11, 1.42122125625610351562e+00) (12, -1.63379716873168945312e+00) 
