FANN_FLO_2.1
num_layers=4
learning_rate=0.700000
connection_rate=1.000000
network_type=0
learning_momentum=0.000000
training_algorithm=2
train_error_function=1
train_stop_function=1
cascade_output_change_fraction=0.010000
quickprop_decay=-0.000100
quickprop_mu=1.750000
rprop_increase_factor=1.200000
rprop_decrease_factor=0.500000
rprop_delta_min=0.000000
rprop_delta_max=50.000000
rprop_delta_zero=0.100000
cascade_output_stagnation_epochs=12
cascade_candidate_change_fraction=0.010000
cascade_candidate_stagnation_epochs=12
cascade_max_out_epochs=150
cascade_min_out_epochs=50
cascade_max_cand_epochs=150
cascade_min_cand_epochs=50
cascade_num_candidate_groups=2
bit_fail_limit=9.99999977648258209229e-03
cascade_candidate_limit=1.00000000000000000000e+03
cascade_weight_multiplier=4.00000005960464477539e-01
cascade_activation_functions_count=10
cascade_activation_functions=3 5 7 8 10 11 14 15 16 17 
cascade_activation_steepnesses_count=4
cascade_activation_steepnesses=2.50000000000000000000e-01 5.00000000000000000000e-01 7.50000000000000000000e-01 1.00000000000000000000e+00 
layer_sizes=3 5 5 2 
scale_included=0
neurons (num_inputs, activation_function, activation_steepness)=(0, 0, 0.00000000000000000000e+00) (0, 0, 0.00000000000000000000e+00) (0, 0, 0.00000000000000000000e+00) (3, 5, 1.00000000000000000000e+00) (3, 5, 1.00000000000000000000e+00) (3, 5, 1.00000000000000000000e+00) (3, 5, 1.00000000000000000000e+00) (0, 5, 1.00000000000000000000e+00) (5, 5, 1.00000000000000000000e+00) (5, 5, 1.00000000000000000000e+00) (5, 5, 1.00000000000000000000e+00) (5, 5, 1.00000000000000000000e+00) (0, 5, 1.00000000000000000000e+00) (5, 5, 1.00000000000000000000e+00) (0, 5, 1.00000000000000000000e+00) 
connections (connected_to_neuron, weight)=(0, 1.38051927089691162109e+00) (1, 1.38146018981933593750e+00) (2, -1.54007446765899658203e+00) (0, 1.71728765964508056641e+00) (1, 1.71729803085327148438e+00) (2, 2.33778262138366699219e+00) (0, 1.65775585174560546875e+00) (1, 1.65843605995178222656e+00) (2, -8.33699107170104980469e-02) (0, -3.27653408050537109375e+00) (1, -3.26690244674682617188e+00) (2, 1.32675063610076904297e+00) (3, 2.07193827629089355469e+00) (4, 1.43858265876770019531e+00) (5, 1.17192459106445312500e+00) (6, 2.15621665120124816895e-01) (7, 2.93779873847961425781e+00) (3, 1.05189504101872444153e-02) (4, 2.52299094200134277344e+00) (5, 1.70399975776672363281e+00) (6, 8.05269479751586914062e-01) (7, -1.64865419268608093262e-01) (3, 1.36116075515747070312e+00) (4, 1.00271809101104736328e+00) (5, 1.22742700576782226562e+00) (6, 2.04088553786277770996e-01) (7, -1.90915203094482421875e+00) (3, 2.08201742172241210938e+00) (4, 1.22182488441467285156e+00) (5, 3.81054759025573730469e-01) (6, -9.24230441451072692871e-02) (7, 1.87844610214233398438e+00) (8, 1.98212385177612304688e+00) (9, 2.49733000993728637695e-01) (10, 1.92866837978363037109e+00) (11, 1.29451596736907958984e+00) (12, -1.35762727260589599609e+00) 
