FANN_FLO_2.1
num_layers=4
learning_rate=0.700000
connection_rate=1.000000
network_type=0
learning_momentum=0.000000
training_algorithm=2
train_error_function=1
train_stop_function=1
cascade_output_change_fraction=0.010000
quickprop_decay=-0.000100
quickprop_mu=1.750000
rprop_increase_factor=1.200000
rprop_decrease_factor=0.500000
rprop_delta_min=0.000000
rprop_delta_max=50.000000
rprop_delta_zero=0.100000
cascade_output_stagnation_epochs=12
cascade_candidate_change_fraction=0.010000
cascade_candidate_stagnation_epochs=12
cascade_max_out_epochs=150
cascade_min_out_epochs=50
cascade_max_cand_epochs=150
cascade_min_cand_epochs=50
cascade_num_candidate_groups=2
bit_fail_limit=9.99999977648258209229e-03
cascade_candidate_limit=1.00000000000000000000e+03
cascade_weight_multiplier=4.00000005960464477539e-01
cascade_activation_functions_count=10
cascade_activation_functions=3 5 7 8 10 11 14 15 16 17 
cascade_activation_steepnesses_count=4
cascade_activation_steepnesses=2.50000000000000000000e-01 5.00000000000000000000e-01 7.50000000000000000000e-01 1.00000000000000000000e+00 
layer_sizes=3 5 5 2 
scale_included=0
neurons (num_inputs, activation_function, activation_steepness)=(0, 0, 0.00000000000000000000e+00) (0, 0, 0.00000000000000000000e+00) (0, 0, 0.00000000000000000000e+00) (3, 5, 1.00000000000000000000e+00) (3, 5, 1.00000000000000000000e+00) (3, 5, 1.00000000000000000000e+00) (3, 5, 1.00000000000000000000e+00) (0, 5, 1.00000000000000000000e+00) (5, 5, 1.00000000000000000000e+00) (5, 5, 1.00000000000000000000e+00) (5, 5, 1.00000000000000000000e+00) (5, 5, 1.00000000000000000000e+00) (0, 5, 1.00000000000000000000e+00) (5, 5, 1.00000000000000000000e+00) (0, 5, 1.00000000000000000000e+00) 
connections (connected_to_neuron, weight)=(0, 5.67521870136260986328e-01) (1, 5.55823802947998046875e-01) (2, 5.90007007122039794922e-01) (0, 9.83371436595916748047e-01) (1, 9.88989233970642089844e-01) (2, 1.54306089878082275391e+00) (0, 2.83365392684936523438e+00) (1, 2.87229514122009277344e+00) (2, 6.22670531272888183594e-01) (0, 1.09940123558044433594e+00) (1, 1.10541951656341552734e+00) (2, -1.54035627841949462891e+00) (3, 1.06762707233428955078e+00) (4, 2.00785279273986816406e+00) (5, 2.88771361112594604492e-01) (6, 1.29240071773529052734e+00) (7, 5.74206709861755371094e-01) (3, 1.48719036579132080078e+00) (4, 1.13173805177211761475e-01) (5, 1.07429742813110351562e+00) (6, 2.57545399665832519531e+00) (7, -1.44611048698425292969e+00) (3, 2.13143587112426757812e+00) (4, 1.76139521598815917969e+00) (5, 8.97759139537811279297e-01) (6, 5.96774518489837646484e-01) (7, 1.47273981571197509766e+00) (3, 1.42034935951232910156e+00) (4, 8.70927631855010986328e-01) (5, 1.59483134746551513672e-01) (6, 3.65369415283203125000e+00) (7, 1.73285913467407226562e+00) (8, 1.07804834842681884766e+00) (9, 1.61398768424987792969e+00) (10, 1.52669000625610351562e+00) (11, 3.97004991769790649414e-01) (12, -9.93481695652008056641e-01) 
